
\data\
ngram 1=88

\1-grams:
-0.4690033	</s>
-99	<s>
-2.122216	Be
-2.122216	Smoke
-2.122216	Something
-2.122216	Welcome
-2.122216	all
-2.122216	and
-2.122216	autumn
-2.122216	back
-2.122216	bhool
-2.122216	bird
-2.122216	black
-2.122216	blue
-2.122216	body
-2.122216	born
-2.122216	california
-2.122216	chali
-2.122216	cheap
-2.122216	chehra
-2.122216	child
-2.122216	deewana
-2.122216	dil
-2.122216	fake
-2.122216	five
-2.122216	free
-2.122216	fruit
-2.122216	funny
-2.122216	genre
-2.122216	haze
-2.122216	hell
-2.122216	hey
-2.122216	highway
-2.122216	hotel
-2.122216	i
-2.122216	in
-2.122216	indie
-2.122216	ja
-2.122216	jazz
-2.122216	jude
-2.122216	jungle
-2.122216	just
-2.122216	kajra
-2.122216	ki
-2.122216	lady
-2.122216	leaves
-2.122216	like
-2.122216	love
-2.122216	me
-2.122216	mine
-2.122216	misty
-2.122216	monk
-2.122216	my
-1.946125	o
-1.946125	of
-2.122216	on
-2.122216	photograph
-2.122216	pia
-2.122216	piya
-2.122216	play
-2.122216	pop
-2.122216	purple
-2.122216	re
-2.122216	rock
-2.122216	rockabye
-2.122216	saathiya
-2.122216	shape
-2.122216	sing
-2.122216	song
-2.122216	sophisticated
-2.122216	soul
-2.122216	strange
-2.122216	sweet
-2.122216	take
-2.122216	tanha
-2.122216	tera
-2.122216	that
-2.122216	the
-2.122216	this
-2.122216	thrills
-2.122216	to
-2.122216	valentine
-2.122216	water
-2.122216	wild
-2.122216	woh
-2.122216	yaad
-2.122216	yaaron
-1.946125	you

\end\
